#pragma once
/* Auto-generated - do not edit */

#define NN_INPUT_SIZE  16
#define NN_HIDDEN_SIZE 64
#define NN_OUTPUT_SIZE 10

/* shape: (64, 16) */
static const float weight_0[1024] = {0.137078f, -0.060579f, -0.007484f, -0.090510f, -0.038652f, -0.218945f, -0.117696f, 0.043924f, 0.362837f, 0.249981f, -0.176835f, 0.322570f, -0.027025f, -0.176472f, -0.052649f, -0.024404f, 0.547866f, 0.190535f, 0.059505f, 0.565657f, -0.016050f, -0.004173f, -0.179438f, 0.183684f, 0.014250f, -0.055959f, 0.012555f, -0.121345f, 0.052284f, -0.287813f, -0.018592f, -0.122638f, -0.060444f, 0.564431f, -0.268960f, -1.124213f, 0.307017f, 0.172131f, 0.073449f, 0.034623f, -0.160781f, -0.008441f, -0.301182f, -0.038725f, 0.019737f, -0.126560f, -0.186445f, -0.218507f, -0.266289f, -0.216729f, -0.011590f, -0.004341f, 0.358519f, -0.023976f, -0.365810f, -0.081371f, 0.026463f, -0.085875f, -0.348594f, 0.226172f, 0.122684f, 0.122702f, -0.034758f, -0.113697f, 0.181427f, 0.807631f, -0.149212f, -0.596182f, 0.054665f, 0.006430f, -0.046888f, 0.157563f, 0.116695f, -0.186507f, -0.312286f, 0.220907f, -0.107006f, 0.080455f, -0.016827f, -0.341362f, 0.798844f, -0.257878f, 0.242813f, 0.248974f, 0.322917f, 0.015116f, -0.434844f, -0.031903f, -0.066823f, -0.034801f, 0.031483f, -0.117896f, -0.341828f, 0.097829f, -0.064333f, -0.477282f, 0.722648f, -0.596117f, -0.121374f, -0.002465f, 0.042830f, 0.109275f, 0.152396f, 0.017470f, -0.226408f, -0.285051f, -0.203298f, 0.156780f, 0.241937f, 0.247990f, -0.160452f, 0.220495f, 0.246782f, 0.217177f, 0.288110f, -0.536461f, -0.109995f, 0.262933f, 0.256342f, -0.052269f, 0.031388f, -0.104102f, 0.135696f, -0.122517f, 0.017551f, 0.091216f, -0.052256f, 0.509460f, 0.081399f, -0.072265f, -0.012112f, -0.077105f, -0.071753f, -0.069972f, -0.101782f, 0.057241f, 0.439206f, -0.056729f, -0.256984f, 0.649996f, 0.143014f, -0.201781f, 0.029342f, 0.142361f, -0.049440f, 0.099512f, 0.471405f, 0.019454f, 0.327556f, -0.231683f, -0.319818f, -0.249816f, -0.214563f, 0.010862f, -0.160744f, 0.275896f, 0.172909f, -0.205068f, 0.067212f, 0.115071f, 0.106715f, -0.414977f, -0.276608f, 0.420392f, 0.164792f, 0.081071f, 0.203207f, 0.104233f, 0.410815f, -0.173925f, -0.093865f, -0.428471f, 0.067408f, -0.098525f, -0.282006f, 0.099401f, 0.036544f, 0.447167f, 0.189867f, 0.289778f, 0.057629f, -0.048608f, 0.149907f, 0.048496f, 0.280931f, -0.079416f, 0.057793f, 0.131126f, -0.190487f, -0.374049f, 0.236876f, -0.127468f, 0.222042f, -0.029970f, 0.040308f, -0.160613f, 0.151583f, -0.328603f, 0.035279f, -0.269669f, -0.561631f, 0.169705f, 0.232554f, -0.138916f, -0.165481f, -0.124921f, 0.090723f, 0.057650f, -0.413622f, -0.033263f, 0.408229f, -0.162612f, -0.216970f, 0.283904f, 0.433521f, -0.029832f, 0.053472f, -0.182625f, -0.033714f, -0.147061f, -0.047576f, -0.195540f, 0.280247f, 0.156273f, 0.554267f, 0.429938f, -0.207296f, 0.085018f, 0.143224f, -0.262596f, -0.167443f, -0.139236f, -0.001448f, 0.150351f, -0.236657f, 0.576230f, 0.003058f, -0.111537f, 0.011112f, -0.329218f, 0.064838f, -0.273670f, -0.614439f, -0.085405f, 0.383154f, -0.035985f, 0.092742f, -0.028128f, 0.101332f, -0.171596f, -0.075038f, -0.272819f, -0.157233f, -0.279959f, 0.050594f, -0.417380f, 0.331784f, 0.241037f, -0.136058f, 0.038269f, 0.001345f, 0.643049f, -0.496151f, -0.082628f, 0.241029f, 0.180948f, -0.037322f, -0.279247f, 0.038169f, -0.052346f, -0.101148f, -0.027091f, -0.350267f, 0.454192f, -0.205029f, -0.617477f, 0.190170f, 0.224102f, -0.284547f, -0.256226f, 0.070154f, -0.000660f, -0.050237f, 0.111487f, 0.103947f, -0.139595f, 0.019319f, -0.360375f, 0.518051f, 0.019621f, 0.476967f, -0.229850f, -0.062747f, 0.138330f, -0.003295f, -0.080893f, -0.168646f, -0.450271f, 0.468434f, -0.208236f, 0.180753f, -0.046369f, -0.084566f, 0.039882f, -0.440578f, -0.013924f, 0.032457f, 0.124539f, -0.358438f, 0.229617f, 0.368097f, -0.283028f, -0.119360f, 0.222052f, -0.346158f, 0.059824f, 0.014692f, -0.284156f, 0.266659f, 0.239189f, 0.231490f, 0.359529f, 0.421340f, -0.675288f, -0.241060f, 0.082660f, 0.069466f, -0.052533f, 0.058222f, 0.257990f, -0.185096f, 0.398439f, 0.028782f, 0.314324f, 0.008526f, 0.025715f, 0.222014f, 0.285230f, 0.408138f, -0.852673f, 0.101215f, -0.209002f, 0.043374f, -0.083683f, 0.044411f, -0.174272f, 0.277585f, -0.119353f, 0.267987f, 0.239968f, 0.098155f, -0.059321f, 0.326384f, 0.177360f, -0.428969f, 0.103090f, -0.254243f, 0.049112f, -0.306063f, 0.183321f, -0.097139f, 0.267284f, -0.404535f, 0.213257f, -0.004640f, 0.094640f, -0.146751f, -0.360333f, -0.250083f, 0.306026f, 0.041660f, -0.137359f, -0.253684f, 0.209807f, -0.024901f, 0.018311f, 0.384135f, -0.036543f, 0.303423f, -0.438302f, -0.120413f, 0.353567f, -0.072732f, -0.067742f, 0.117123f, -0.410613f, -0.144287f, 0.779311f, 0.041034f, 0.036342f, 0.100216f, 0.106647f, -0.133889f, -0.041655f, -0.155453f, -0.443528f, 0.017890f, -0.100740f, 0.095159f, -0.089328f, -0.040148f, -0.631639f, 0.037975f, 0.740644f, -0.105479f, 0.096337f, 0.256392f, 0.060948f, 0.335435f, -0.229893f, 0.453624f, 0.145838f, 0.290974f, 0.303579f, -0.153136f, -0.316143f, -0.032870f, -0.323029f, -0.348927f, 0.215077f, 0.020298f, 0.159006f, -0.433964f, -0.478706f, 0.053743f, 0.324572f, 0.009815f, -0.057152f, -0.149102f, 0.087646f, -0.111076f, -0.198206f, 0.161227f, 0.074422f, 0.241526f, -0.002395f, -0.252342f, -0.114611f, 0.067189f, 0.228742f, 0.229592f, 0.227716f, 0.204723f, -0.298009f, -0.210440f, -0.067589f, -0.497735f, 0.204633f, -0.473900f, -0.597867f, 0.010541f, 0.409335f, -0.010411f, 0.122591f, 0.149704f, 0.195379f, -0.066050f, -0.015391f, -0.210348f, 0.002299f, 0.091034f, -0.065651f, 0.119482f, 0.011006f, -0.104634f, 0.479682f, -0.031637f, 0.265770f, -0.188215f, 0.198763f, 0.034528f, -0.052577f, -0.503102f, 0.074877f, 0.481898f, -0.000321f, 0.080279f, -0.049351f, 0.119321f, 0.041061f, 0.010057f, 0.124927f, -0.630417f, -0.323852f, 0.134378f, 0.079585f, -0.404868f, -0.025061f, 0.147899f, 0.202570f, -0.089106f, -0.090069f, 0.368977f, -0.027339f, -0.309357f, 0.319936f, 0.133489f, -0.164719f, 0.217881f, 0.678511f, -0.073762f, 0.191979f, -0.001821f, 0.098493f, -0.207682f, 0.115370f, 0.009230f, -0.190737f, -0.628663f, 0.449186f, 0.143982f, 0.101690f, -0.272084f, -0.428086f, -0.225102f, 0.210133f, -0.165219f, 0.447158f, 0.168007f, 0.013212f, 0.108988f, -0.201574f, -0.388076f, 0.274161f, 0.044112f, -0.008300f, -0.012955f, -0.151165f, 0.190560f, 0.081804f, -0.263441f, 0.061964f, 0.030789f, -0.287116f, 0.322089f, 0.070096f, -0.341453f, 0.049826f, 0.333185f, -0.090025f, -0.097584f, -0.256637f, -0.268820f, 0.011340f, -0.592231f, 0.332505f, -0.129922f, -0.035193f, 0.046053f, -0.282389f, -0.360337f, 0.259530f, 0.165595f, -0.059243f, -0.248582f, 0.155363f, -0.165588f, 0.214250f, -0.013756f, -0.491806f, 0.152886f, -0.022297f, 0.211379f, -0.330406f, -0.124226f, 0.314680f, 0.505176f, 0.165708f, -0.196145f, 0.215613f, -0.184865f, 0.048815f, -0.036400f, -0.192397f, -0.049271f, -0.018563f, 0.206876f, -0.196334f, -0.575779f, -0.496868f, 0.031253f, 0.105164f, 0.022974f, 0.081424f, -0.445131f, 0.190404f, -0.114135f, -0.153247f, 0.164113f, 0.093950f, 0.063108f, -0.316312f, -0.426468f, 0.283263f, 0.593445f, -0.095666f, -0.259004f, 0.142727f, -0.085112f, 0.086258f, 0.233551f, -0.270548f, -0.267180f, -0.128623f, 0.205546f, 0.108119f, 0.335397f, -0.076739f, -0.480173f, 0.160297f, 0.279261f, -0.637842f, -0.031008f, -0.162621f, 0.000970f, 0.302543f, 0.073992f, 0.035995f, -0.243976f, -0.019893f, -0.072722f, -0.129529f, -0.124570f, -0.161779f, 0.004430f, -0.129223f, 0.391876f, 0.308002f, -0.210357f, -0.216730f, 0.235295f, -0.197254f, -0.126889f, 0.191959f, 0.024021f, 0.494684f, -0.077760f, 0.145514f, -0.277882f, -0.302139f, 0.209391f, -0.375798f, 0.201852f, -0.109422f, 0.238735f, -0.128171f, -0.176425f, 0.012807f, 0.089250f, -0.081151f, 0.019131f, 0.235412f, -0.056961f, 0.614345f, 0.112785f, -0.305463f, 0.538132f, -0.387481f, -0.100830f, 0.233089f, 0.083047f, 0.097347f, -0.203049f, -0.015793f, -0.177287f, -0.009572f, 0.301868f, -0.274394f, 0.093831f, 0.081006f, -0.201680f, 0.346969f, 0.131061f, -0.210599f, -0.319337f, 0.021954f, 0.384628f, -0.165835f, 0.005590f, -0.227985f, 0.104904f, -0.072129f, 0.361525f, 0.254132f, -0.057517f, -0.001661f, -0.275706f, 0.299299f, -0.274389f, -0.958627f, -0.104297f, -0.413327f, -0.016342f, -0.013091f, 0.090385f, -0.190919f, 0.137361f, -0.071483f, 0.241489f, 0.159720f, -0.071630f, -0.270309f, -0.061076f, -0.047878f, 0.207042f, -0.350484f, -0.117644f, 0.570015f, 0.289146f, 0.138935f, 0.163337f, -0.139355f, 0.197014f, -0.026146f, -0.137230f, 0.381222f, -0.107998f, 0.084722f, -0.153080f, -0.192312f, 0.154421f, 0.479449f, 0.243702f, 0.125180f, -0.029139f, -0.360996f, 0.256532f, -0.409516f, 0.123942f, 0.020393f, 0.047249f, -0.194617f, -0.013806f, 0.109326f, 0.326850f, 0.292876f, 0.102303f, 0.544138f, 0.131805f, -0.599602f, 0.143689f, 0.106002f, 0.011546f, 0.066519f, 0.071498f, -0.148120f, -0.061727f, -0.456126f, -0.294933f, -0.156859f, 0.002427f, 0.127308f, -0.933115f, -0.152478f, 0.340018f, 0.347104f, 0.007128f, 0.557205f, 0.028899f, 0.285281f, -0.155742f, -0.177211f, -0.041668f, -0.049798f, 0.122404f, 0.053308f, -0.179127f, -0.202132f, -0.131266f, 0.771186f, -0.414110f, -0.387958f, -0.308473f, 0.124945f, -0.397503f, 0.141097f, -0.055472f, 0.035952f, 0.149222f, -0.010103f, -0.178942f, 0.025568f, 0.056870f, 0.412082f, 0.277109f, -0.298786f, -0.305013f, 0.423779f, 0.102939f, -0.278731f, 0.058782f, 0.126885f, -0.324425f, 0.032280f, -0.154910f, -0.122647f, 0.095709f, 0.278235f, 0.100355f, 0.412806f, 0.116084f, -0.153934f, -0.112589f, 0.188212f, 0.237841f, -0.230512f, -0.201955f, 0.397955f, -0.309237f, -0.124635f, 0.098584f, -0.005740f, 0.192414f, 0.013465f, 0.083210f, 0.160364f, -0.899679f, -0.161321f, 0.070365f, -0.097852f, 0.208212f, -0.199810f, 0.318271f, 0.100198f, -0.295707f, 0.055177f, 0.289228f, -0.102552f, 0.865587f, 0.271138f, 0.006460f, -0.125256f, 0.179593f, -0.083706f, 0.210625f, 0.117512f, 0.115208f, 0.234464f, 0.691671f, 0.077453f, 0.132025f, 0.221431f, -0.378403f, -0.140736f, 0.387696f, -0.064205f, -0.160131f, 0.107893f, -0.027206f, -0.328442f, -0.547919f, 0.252724f, 0.013592f, 0.159273f, 0.015907f, 0.108386f, -0.264277f, -0.004295f, 0.098353f, 0.043909f, 0.031918f, -0.013809f, -0.136393f, 0.328867f, 0.027951f, 0.166181f, 0.059987f, -0.130896f, -0.209346f, -0.323171f, 0.187952f, 0.191505f, 0.080571f, -0.095661f, 0.444674f, -0.196529f, 0.211865f, -0.435833f, 0.160935f, -0.060681f, -0.338681f, 0.028032f, 0.129131f, -0.752298f, -0.273022f, 0.029121f, 0.181363f, 0.310259f, 0.272213f, -0.090863f, 0.173099f, 0.075921f, 0.065715f, -0.232790f, -0.130117f, -0.004546f, 0.438027f, 0.411944f, -0.074974f, -0.586495f, -0.001110f, -0.460936f, -0.506519f, -0.018589f, 0.166658f, 0.157807f, 0.251004f, 0.025597f, 0.020036f, -0.186683f, 0.132505f, -0.022496f, -0.206431f, 0.061542f, 0.023175f, -0.432714f, -0.153386f, 0.257075f, -0.162302f, 0.073948f, -0.090514f, 0.131737f, 0.059877f, 0.326567f, -0.016956f, -0.386115f, 0.059998f, 0.224542f, -0.302072f, 0.670195f, 0.318108f, -0.646445f, 0.102564f, 0.301465f, 0.394558f, -0.062681f, -0.143535f, -0.156310f, 0.013971f, -0.001063f, -0.063986f, 0.119724f, -0.156702f, 0.320012f, -0.246331f, 0.056736f, -0.170653f, 0.280795f, 0.117064f, 0.243055f, 0.113475f, 0.025105f, 0.065764f, 0.353817f, 0.195447f, -0.293863f, 0.012571f, 0.192859f, 0.106550f, 0.045249f, -0.027336f, -0.216731f, 0.359118f, 0.272271f, -0.122023f, -0.021396f, 0.258590f, -0.338538f, 0.350536f, 0.215492f, -0.403710f, -0.099175f, -0.041067f, 0.260217f, -0.234976f, -0.338775f, 0.158843f, 0.054416f, 0.074209f, -0.006771f, -0.370999f, 0.114644f, 0.137153f, -0.295353f, 0.093146f, 0.113373f, 0.045723f, 0.370504f, -0.313964f, -0.277408f, 0.045668f, -0.089684f, 0.006823f, -0.444800f, -0.868379f, 0.183385f, -0.229299f, 0.093402f, 0.296309f, -0.003778f, 0.170028f, -0.033789f, 0.338641f, -0.315806f, -0.363261f, 0.461572f, 0.313494f, 0.430089f, -0.024821f, -0.061271f, 0.732075f, -0.269797f, 0.019267f, -0.092270f, 0.116268f, 0.025018f, -0.345331f, -0.170735f, 0.208064f, 0.164878f, -0.287380f, -0.108151f, -0.109416f, 0.108701f};

/* shape: (64,) */
static const float bias_0[64] = {-0.045720f, -0.083206f, 0.039853f, 0.125641f, 0.073290f, -0.042975f, 0.007890f, -0.029344f, 0.064573f, -0.003250f, 0.008993f, -0.169351f, 0.003447f, -0.071696f, 0.021660f, 0.076214f, -0.060070f, 0.081199f, 0.136705f, -0.060363f, -0.088612f, 0.090487f, 0.023295f, -0.017664f, 0.008239f, -0.024391f, -0.002316f, -0.133010f, 0.003347f, -0.059497f, 0.095982f, -0.114871f, 0.058331f, -0.002280f, 0.067304f, -0.147813f, 0.014726f, 0.002347f, 0.032366f, -0.056246f, 0.115445f, 0.055168f, 0.073506f, 0.070366f, -0.002996f, -0.075354f, 0.011300f, 0.006778f, 0.080636f, -0.019654f, 0.033158f, 0.053396f, -0.063124f, 0.040424f, -0.052007f, -0.020357f, -0.008907f, -0.068237f, 0.039145f, -0.049050f, -0.016105f, -0.087784f, 0.021374f, -0.013690f};

/* shape: (64, 64) */
static const float weight_2[4096] = {0.209144f, 0.215440f, -0.236983f, -0.060203f, -0.045559f, 0.336477f, -0.279207f, 0.106767f, -0.012346f, 0.114399f, -0.295807f, 0.015334f, 0.376762f, -0.049002f, -0.119732f, -0.155235f, -0.022864f, 0.484352f, -0.287495f, 0.051852f, 0.223004f, -0.224482f, -0.080882f, 0.040915f, 0.232908f, -0.183944f, -0.096393f, -0.007520f, 0.010441f, 0.125982f, -0.091463f, 0.352216f, -0.419316f, -0.175857f, 0.194906f, 0.362728f, 0.249614f, 0.297280f, 0.249188f, -0.366009f, 0.518868f, 0.211302f, -0.204019f, -0.414326f, 0.081074f, -0.041062f, -0.038273f, 0.089255f, 0.085127f, -0.156458f, 0.371709f, -0.001037f, -0.210637f, 0.015137f, -0.394276f, -0.344086f, 0.137686f, 0.467047f, 0.015668f, 0.114711f, 0.131045f, -0.064819f, -0.211021f, -0.119024f, -0.236018f, -0.398355f, -0.104358f, 0.206547f, -0.239016f, -0.239424f, -0.136393f, -0.198700f, -0.118130f, 0.936268f, -0.387528f, 0.049853f, 0.161787f, 0.484815f, -0.258065f, -0.474240f, -0.249162f, 0.071620f, 0.059559f, -0.040798f, -0.097171f, 0.189849f, -0.363058f, -0.124401f, -0.112316f, 0.083726f, -0.161949f, 0.242897f, -0.103146f, 0.443413f, -0.335716f, 0.338290f, 0.064198f, 0.065899f, -0.138572f, 0.135901f, -0.077186f, 0.422161f, 0.314131f, -0.049948f, -0.065378f, -0.051830f, 0.052665f, 0.040911f, -0.345046f, 0.228877f, -0.338153f, 0.403315f, -0.322179f, -0.324949f, -0.022314f, 0.241761f, 0.094229f, 0.037287f, -0.136413f, -0.033370f, -0.570888f, -0.115250f, 0.006171f, -0.113030f, 0.044169f, -0.154999f, -0.303151f, 0.280373f, -0.057453f, -0.137527f, -0.113103f, 0.384870f, 0.271516f, -0.121875f, -0.072078f, -0.103024f, 0.211809f, -0.015434f, -0.074466f, -0.167244f, -0.104864f, -0.197926f, 0.019787f, -0.085848f, 0.423121f, -0.068319f, -0.002683f, 0.301827f, 0.199995f, -0.065444f, 0.031356f, -0.053649f, 0.260991f, 0.462603f, 0.081881f, 0.088141f, 0.271971f, -0.218807f, -0.137462f, 0.120391f, 0.036557f, -0.075053f, 0.129912f, -0.092670f, 0.070709f, 0.190949f, -0.239588f, 0.234308f, 0.083186f, 0.155637f, 0.223922f, 0.235689f, 0.110178f, -0.459213f, -0.098603f, 0.109155f, -0.214598f, 0.198014f, -0.070342f, -0.227409f, 0.205248f, 0.214090f, -0.641653f, 0.051625f, -0.331785f, 0.062963f, -0.062732f, 0.163588f, -0.071586f, -0.139246f, 0.212134f, -0.554318f, 0.028908f, -0.321238f, 0.043204f, 0.128006f, 0.223644f, -0.134189f, 0.364637f, 0.089996f, 0.118929f, -0.012391f, 0.031234f, -0.196711f, 0.074389f, 0.339990f, 0.238827f, 0.033417f, -0.071720f, 0.021757f, 0.056193f, 0.099488f, 0.280006f, -0.013444f, 0.035379f, -0.135011f, -0.303907f, -0.303834f, -0.036767f, 0.396949f, -0.070404f, -0.233298f, -0.139748f, -0.232982f, 0.242093f, -0.175985f, -0.283424f, 0.327460f, 0.301885f, 0.092013f, 0.216377f, -0.234905f, -0.095157f, -0.327060f, -0.371892f, 0.022550f, -0.130342f, 0.097467f, 0.068835f, -0.176213f, -0.114055f, 0.018042f, 0.076890f, 0.080559f, 0.285684f, 0.298606f, -0.137726f, 0.451275f, 0.126190f, 0.190830f, 0.411967f, 0.198068f, -0.288010f, 0.400012f, -0.080624f, -0.160141f, -0.070347f, -0.178466f, -0.458620f, -0.046726f, -0.161216f, -0.125431f, -0.149347f, -0.020229f, -0.172549f, 0.134988f, -0.193411f, 0.312441f, 0.227244f, -0.405116f, 0.215241f, -0.399204f, 0.164382f, -0.104868f, -0.263289f, 0.047532f, 0.201020f, 0.032620f, 0.258606f, 0.121591f, -0.331337f, 0.175933f, 0.399973f, 0.120940f, -0.134973f, 0.126498f, 0.127709f, -0.022501f, 0.091968f, -0.121472f, 0.189240f, -0.113200f, -0.058018f, -0.435437f, -0.108619f, 0.095872f, 0.107481f, 0.339469f, 0.259825f, 0.089269f, -0.343735f, 0.360488f, -0.293191f, 0.009286f, 0.205116f, -0.483241f, -0.176343f, 0.101156f, -0.266550f, 0.032493f, 0.001820f, 0.062455f, 0.538918f, 0.173310f, 0.096101f, 0.025388f, -0.111156f, 0.394592f, -0.113705f, 0.087696f, -0.085267f, -0.098094f, -0.443586f, 0.094731f, -0.378190f, 0.262460f, -0.023250f, -0.222886f, 0.194490f, 0.034616f, 0.151366f, 0.011007f, -0.041613f, -0.137050f, 0.004804f, -0.228874f, 0.214515f, -0.029963f, 0.024618f, 0.124867f, -0.005193f, 0.019235f, -0.175570f, 0.001379f, 0.322134f, 0.210862f, 0.122756f, -0.181343f, -0.140399f, -0.136059f, -0.067529f, -0.237675f, -0.228413f, -0.120258f, 0.043339f, 0.248067f, -0.180074f, 0.168500f, -0.449980f, -0.208116f, -0.380129f, 0.026072f, -0.097137f, -0.159784f, 0.388956f, -0.024144f, -0.168779f, 0.052706f, -0.332257f, -0.349145f, -0.444654f, -0.181580f, 0.376836f, -0.188598f, -0.165695f, -0.425040f, -0.145984f, -0.028604f, -0.189212f, -0.083822f, 0.083438f, 0.330259f, -0.101158f, 0.104359f, 0.169985f, -0.234947f, -0.069657f, -0.185308f, 0.053456f, -0.200699f, 0.220100f, 0.387299f, -0.207489f, -0.383277f, 0.154856f, -0.113863f, 0.005829f, -0.142330f, -0.424381f, -0.360627f, 0.111013f, 0.006199f, -0.059207f, -0.146341f, -0.006999f, 0.147772f, 0.188784f, 0.108327f, -0.112189f, 0.186471f, -0.457628f, 0.465165f, -0.160690f, -0.199235f, -0.406199f, 0.017621f, -0.038842f, 0.366468f, 0.102406f, 0.354176f, 0.216397f, -0.107205f, 0.239826f, -0.210141f, -0.016211f, -0.069659f, 0.176197f, -0.132717f, -0.017971f, -0.113171f, 0.178529f, -0.003600f, -0.040671f, 0.308622f, -0.020788f, 0.185728f, 0.223887f, -0.028367f, 0.436493f, 0.190601f, -0.070023f, -0.195107f, 0.148556f, -0.171932f, -0.365009f, -0.280903f, -0.269656f, 0.204331f, -0.489039f, 0.261708f, 0.051766f, -0.059652f, -0.197083f, 0.002572f, -0.138718f, 0.127861f, -0.131854f, 0.073272f, 0.230134f, 0.012544f, -0.476728f, -0.081630f, 0.080280f, 0.120769f, 0.068941f, -0.343813f, 0.040012f, -0.271156f, -0.091349f, 0.032913f, 0.242933f, -0.023876f, 0.429519f, 0.083006f, -0.218011f, 0.126749f, 0.134501f, -0.432946f, 0.079194f, -0.151491f, -0.063980f, -0.105370f, -0.039957f, 0.100244f, 0.396756f, 0.322630f, 0.208266f, 0.212816f, 0.222102f, 0.188123f, -0.148520f, -0.113613f, 0.236974f, -0.123514f, 0.298143f, 0.262713f, -0.463042f, 0.012789f, 0.466139f, 0.620748f, 0.309740f, 0.189134f, 0.040911f, -0.014121f, -0.232770f, -0.118855f, -0.058095f, -0.026810f, -0.131544f, -0.396520f, -0.137924f, 0.115103f, 0.064446f, -0.281763f, 0.083201f, -0.405764f, 0.039182f, -0.292912f, -0.047769f, 0.332917f, -0.123580f, -0.049924f, 0.345328f, -0.053533f, -0.362009f, 0.556186f, -0.256884f, -0.204215f, 0.460336f, 0.241930f, 0.021641f, 0.376412f, 0.123720f, -0.056659f, -0.320658f, 0.667659f, -0.214714f, 0.012683f, -0.086200f, 0.114481f, 0.000326f, -0.322432f, -0.098069f, 0.016588f, 0.118972f, -0.324451f, 0.167527f, -0.029803f, -0.076749f, 0.245877f, 0.171004f, 0.003041f, 0.146387f, -0.499442f, -0.319400f, 0.441957f, -0.392108f, -0.052886f, 0.141667f, 0.484592f, 0.147737f, -0.422473f, -0.076961f, 0.101363f, -0.038630f, -0.291994f, 0.003518f, 0.119174f, -0.457142f, 0.123207f, 0.126203f, 0.118186f, 0.240324f, 0.077128f, 0.487954f, 0.165529f, -0.136593f, -0.045486f, 0.447109f, 0.305341f, 0.371004f, -0.160219f, -0.044163f, 0.491541f, 0.408812f, 0.117310f, 0.006327f, 0.043269f, 0.072525f, -0.187282f, 0.347479f, 0.083575f, 0.130888f, 0.130507f, -0.186495f, -0.337152f, 0.159907f, 0.272557f, -0.424982f, 0.061442f, -0.142581f, -0.310091f, -0.205815f, 0.190627f, -0.037575f, -0.260504f, 0.496684f, -0.162114f, 0.031798f, 0.317869f, 0.140150f, 0.033347f, 0.042972f, 0.076583f, 0.113480f, -0.308906f, 0.037343f, 0.061985f, -0.309316f, 0.002792f, -0.180161f, -0.047935f, 0.295962f, -0.119091f, 0.128484f, 0.026665f, -0.288602f, 0.069531f, -0.139974f, -0.235615f, -0.064997f, 0.192015f, 0.542140f, 0.206527f, -0.038363f, -0.172508f, 0.097517f, -0.150474f, -0.035574f, 0.068163f, 0.108127f, 0.159814f, -0.434429f, 0.008777f, 0.283027f, -0.037359f, 0.115079f, 0.325414f, 0.022281f, 0.358100f, -0.338600f, -0.047918f, 0.312232f, 0.331770f, 0.240851f, -0.458566f, -0.240861f, -0.504376f, 0.378445f, 0.214558f, 0.168911f, -0.001257f, 0.078418f, -0.176661f, -0.193365f, 0.261259f, -0.047274f, -0.415428f, 0.120642f, -0.203148f, -0.282426f, 0.035796f, 0.034619f, -0.107306f, -0.102232f, 0.194205f, -0.089856f, 0.258312f, 0.253167f, 0.059944f, 0.171165f, -0.250150f, -0.128455f, 0.211996f, 0.112881f, -0.062315f, -0.164783f, -0.330030f, -0.778676f, -0.393152f, -0.108670f, -0.192814f, -0.047790f, -0.246027f, 0.262724f, 0.179073f, -0.148792f, -0.086668f, -0.083097f, -0.360206f, 0.173133f, 0.111850f, -0.614282f, 0.552382f, 0.124587f, 0.024492f, -0.215006f, -0.216150f, 0.018810f, 0.148929f, -0.010092f, -0.033454f, -0.374950f, 0.087594f, -0.087006f, 0.114573f, 0.117492f, 0.372360f, 0.280628f, -0.341672f, 0.041955f, -0.211821f, 0.654593f, -0.421251f, 0.029755f, -0.035185f, 0.040433f, 0.099104f, 0.125464f, -0.213212f, -0.484309f, 0.083115f, 0.032958f, 0.147761f, -0.274427f, 0.259768f, -0.171669f, 0.054611f, 0.064490f, 0.009123f, -0.107612f, 0.565972f, -0.214047f, -0.009972f, -0.100445f, 0.232604f, -0.017908f, -0.252212f, -0.354332f, -0.011934f, 0.479649f, 0.467564f, 0.025476f, 0.114187f, -0.154081f, -0.098577f, -0.205184f, -0.249958f, 0.239477f, 0.034230f, 0.197708f, -0.181293f, 0.208897f, -0.022602f, 0.088309f, 0.390370f, -0.202709f, 0.247040f, 0.123321f, -0.063350f, -0.752466f, -0.296160f, -0.457299f, -0.453410f, -0.042143f, -0.007750f, -0.395088f, -0.159906f, -0.110551f, -0.182777f, 0.059582f, -0.090865f, -0.465715f, 0.173426f, -0.061728f, -0.294216f, -0.137360f, -0.079122f, -0.063625f, 0.071686f, -0.393393f, -0.029996f, 0.266076f, 0.096913f, -0.152106f, -0.124567f, 0.271995f, 0.297437f, -0.086522f, 0.086594f, -0.166291f, 0.442751f, -0.365936f, -0.098533f, 0.066832f, 0.026964f, 0.186763f, 0.165455f, -0.277943f, 0.258942f, 0.036435f, 0.084231f, 0.026703f, 0.140088f, -0.129379f, 0.126150f, -0.484164f, 0.189218f, 0.342508f, 0.121676f, -0.119973f, -0.065276f, 0.264645f, -0.122317f, 0.071264f, 0.002207f, -0.172068f, 0.148468f, -0.260979f, 0.318708f, 0.443503f, 0.036196f, -0.100287f, 0.063944f, -0.131289f, -0.107694f, 0.014592f, 0.158496f, 0.277683f, 0.362878f, -0.026909f, 0.174100f, -0.450470f, -0.013977f, 0.053021f, 0.003932f, -0.083963f, -0.457500f, -0.208825f, -0.283272f, 0.043682f, -0.021594f, 0.002915f, 0.314236f, 0.261922f, 0.102718f, -0.108636f, -0.068156f, -0.239485f, 0.224264f, 0.248307f, 0.082957f, 0.110736f, 0.298754f, 0.128016f, -0.147256f, 0.024285f, 0.170115f, 0.154320f, 0.064024f, 0.177483f, 0.020881f, -0.488974f, -0.305742f, -0.382177f, -0.248724f, 0.098127f, 0.011135f, -0.131421f, 0.261815f, 0.043425f, 0.068728f, 0.183980f, 0.102007f, 0.337590f, -0.286216f, -0.210387f, -0.303696f, -0.262068f, 0.184173f, 0.459637f, -0.060949f, 0.080875f, -0.023769f, 0.209845f, 0.032974f, 0.155271f, 0.051682f, 0.709327f, 0.093994f, 0.243146f, -0.073808f, 0.139957f, 0.298536f, -0.078327f, 0.148187f, -0.371908f, 0.044486f, -0.287881f, 0.224858f, -0.245498f, -0.085836f, -0.035144f, 0.061596f, -0.342011f, 0.098798f, 0.255381f, 0.268444f, -0.188533f, 0.190634f, -0.296044f, -0.051799f, -0.083278f, -0.026573f, 0.156526f, -0.180841f, -0.031717f, -0.403216f, 0.295365f, -0.119300f, 0.063657f, 0.233254f, 0.174196f, 0.441663f, -0.188568f, 0.229865f, 0.003108f, -0.158497f, 0.021079f, -0.140298f, -0.049785f, 0.118944f, 0.146380f, 0.273021f, 0.151474f, -0.104045f, -0.162502f, -0.236250f, -0.225823f, -0.095893f, 0.294258f, 0.202822f, -0.092126f, 0.205999f, 0.350892f, -0.246256f, -0.126384f, 0.130507f, -0.367422f, -0.070150f, -0.168975f, -0.036934f, -0.141529f, -0.229284f, 0.355289f, 0.116001f, 0.220742f, 0.012883f, -0.485045f, 0.073893f, 0.322277f, 0.090882f, 0.216044f, -0.105906f, 0.016247f, -0.252434f, -0.375372f, -0.397595f, 0.253170f, 0.464562f, -0.139558f, 0.037963f, -0.181891f, -0.035867f, 0.391816f, 0.035368f, 0.218066f, 0.555849f, -0.083388f, -0.223461f, -0.010620f, 0.148414f, -0.295512f, 0.071762f, -0.252500f, -0.394070f, -0.402125f, 0.244019f, -0.029817f, -0.115176f, -0.389251f, 0.409817f, -0.069876f, -0.292422f, -0.088472f, 0.555987f, 0.512578f, -0.208725f, 0.020168f, 0.338353f, 0.200118f, -0.428298f, -0.188287f, -0.163863f, 0.196711f, -0.298222f, 0.120280f, -0.185252f, -0.127721f, -0.114049f, 0.025947f, -0.091439f, -0.149219f, 0.256785f, -0.393640f, 0.579553f, -0.244670f, -0.215049f, 0.095873f, 0.205416f, 0.553977f, -0.055928f, -0.131631f, -0.070846f, 0.136451f, -0.088893f, 0.276857f, -0.032373f, 0.388544f, 0.014615f, 0.300538f, -0.420487f, 0.017044f, -0.067749f, -0.221062f, 0.098468f, -0.129023f, 0.119632f, 0.130045f, -0.027053f, -0.180424f, 0.228111f, -0.181245f, 0.485670f, -0.273148f, -0.296204f, 0.071624f, 0.024759f, 0.090365f, -0.004612f, -0.233281f, 0.057186f, 0.023514f, 0.059501f, -0.010698f, 0.368860f, 0.191601f, -0.269888f, 0.076152f, 0.372939f, 0.579189f, -0.329643f, -0.073382f, 0.107949f, 0.027758f, -0.462523f, 0.131972f, 0.029544f, 0.009501f, -0.441147f, -0.121764f, -0.502285f, -0.287284f, -0.085854f, 0.269169f, 0.000787f, -0.031383f, -0.076524f, -0.323877f, 0.223250f, 0.199711f, -0.096802f, 0.231799f, -0.401523f, -0.340124f, 0.401585f, -0.361507f, -0.098812f, 0.010276f, 0.213401f, 0.298430f, 0.153590f, -0.061675f, -0.043658f, 0.155563f, 0.258071f, 0.202196f, 0.093878f, 0.099702f, 0.383341f, 0.127523f, 0.320674f, -0.201870f, -0.663581f, -0.397499f, 0.010451f, -0.418941f, -0.096938f, 0.065029f, -0.147358f, -0.086374f, 0.269151f, -0.183715f, -0.032960f, -0.184088f, 0.057217f, -0.045206f, -0.008718f, -0.330803f, -0.250664f, 0.075919f, -0.265158f, -0.244711f, 0.238765f, 0.311973f, -0.272545f, 0.385466f, -0.159017f, 0.148564f, -0.187429f, -0.039786f, 0.066674f, 0.244545f, 0.161379f, -0.082112f, 0.376360f, 0.249470f, 0.020147f, 0.154968f, 0.167314f, -0.226704f, -0.199703f, 0.228338f, -0.259850f, 0.085192f, -0.128859f, 0.077400f, 0.045531f, 0.136200f, 0.139305f, -0.129970f, -0.122740f, 0.053751f, 0.154368f, -0.391994f, -0.190445f, -0.068113f, 0.292111f, 0.414080f, 0.112344f, -0.171451f, 0.101032f, -0.296094f, -0.178376f, 0.173115f, 0.391454f, 0.303004f, -0.262388f, 0.168804f, 0.087056f, -0.208018f, -0.124380f, 0.352017f, 0.400291f, 0.394237f, -0.520580f, 0.199250f, 0.202767f, 0.019238f, 0.145498f, 0.336637f, -0.047553f, -0.182899f, 0.116421f, -0.396772f, -0.073717f, 0.287744f, -0.434536f, 0.328205f, 0.051951f, 0.331869f, -0.074938f, -0.055310f, -0.609286f, 0.052338f, 0.089765f, -0.104963f, 0.235668f, 0.122376f, -0.191423f, -0.199496f, 0.086401f, 0.265726f, 0.023044f, -0.047918f, -0.416406f, -0.004802f, 0.169482f, 0.015835f, 0.108278f, -0.235105f, -0.062309f, 0.170048f, -0.142943f, -0.001938f, -0.058931f, -0.079822f, 0.378342f, -0.000382f, -0.267163f, -0.028769f, 0.303953f, -0.042288f, -0.172535f, 0.204430f, -0.092319f, 0.142548f, -0.359678f, 0.089785f, -0.128619f, 0.123521f, -0.044350f, 0.140057f, 0.151821f, 0.071028f, -0.458519f, -0.094968f, -0.242460f, 0.405290f, -0.028498f, 0.000478f, 0.238070f, -0.322039f, 0.297422f, 0.211572f, -0.185870f, 0.036820f, -0.097887f, 0.339011f, 0.377372f, 0.112148f, -0.360700f, -0.335529f, 0.227882f, -0.085593f, 0.102768f, -0.042332f, -0.277342f, 0.237296f, 0.142992f, -0.031472f, -0.109148f, 0.012065f, 0.241628f, -0.129150f, -0.216851f, -0.016843f, -0.187785f, 0.345051f, 0.126504f, 0.189291f, -0.123495f, 0.499561f, 0.175443f, 0.322617f, -0.015729f, 0.138668f, 0.166892f, -0.211446f, -0.153004f, -0.122046f, -0.204099f, 0.259559f, 0.102150f, 0.421949f, -0.254295f, 0.092665f, 0.153578f, -0.051853f, -0.216335f, 0.177393f, 0.168887f, 0.037669f, 0.027824f, 0.046176f, -0.755676f, 0.403628f, -0.191493f, -0.226146f, -0.163327f, -0.167803f, 0.311636f, 0.150174f, 0.158183f, 0.245676f, -0.043635f, -0.152439f, 0.231981f, 0.079616f, 0.164719f, 0.148893f, 0.006946f, -0.105477f, -0.197746f, 0.225178f, 0.339474f, 0.012352f, -0.019822f, -0.026564f, -0.187457f, -0.004547f, -0.026291f, 0.313285f, -0.233855f, -0.332292f, -0.188125f, 0.241048f, -0.105555f, 0.145751f, 0.016879f, 0.060257f, -0.275917f, -0.250326f, -0.037922f, 0.082497f, 0.132244f, 0.305488f, 0.075922f, 0.122184f, -0.143141f, -0.132620f, 0.062159f, 0.153064f, 0.003878f, -0.262076f, -0.134214f, -0.164880f, 0.207278f, 0.336518f, -0.162600f, -0.169718f, 0.539195f, 0.138441f, -0.031314f, 0.660954f, 0.428233f, 0.141826f, 0.048717f, -0.006437f, -0.160073f, 0.141411f, 0.307702f, 0.237252f, -0.144244f, 0.048972f, -0.098185f, -0.140976f, 0.029257f, -0.087433f, 0.348729f, 0.067485f, -0.247325f, 0.509762f, 0.207291f, 0.024419f, -0.204336f, -0.113077f, 0.324647f, 0.116028f, -0.052009f, 0.069768f, -0.076040f, 0.204096f, -0.301776f, -0.310610f, -0.418836f, 0.151190f, -0.073454f, 0.141948f, 0.044551f, -0.086792f, 0.026157f, 0.183224f, 0.088978f, 0.165603f, 0.365032f, -0.398288f, 0.127622f, -0.178777f, 0.017455f, -0.113702f, -0.036010f, 0.045917f, 0.322696f, -0.178188f, -0.154030f, 0.166839f, 0.318311f, -0.178770f, 0.144293f, 0.123233f, -0.210716f, 0.115536f, -0.365786f, -0.047347f, 0.491780f, 0.466171f, -0.215557f, -0.076337f, 0.435251f, -0.180636f, -0.003150f, -0.455222f, -0.017332f, -0.057057f, -0.074390f, -0.080538f, -0.070405f, -0.367715f, 0.012027f, -0.063457f, 0.077715f, -0.088934f, 0.222690f, -0.140296f, -0.038694f, 0.003297f, 0.437507f, 0.012258f, 0.244409f, 0.012180f, -0.091178f, -0.170033f, -0.071160f, 0.083303f, -0.382732f, -0.001962f, -0.275693f, 0.186811f, 0.219623f, -0.384903f, -0.277022f, 0.564182f, -0.042229f, 0.636087f, 0.003918f, -0.045082f, -0.230807f, -0.213683f, -0.137329f, 0.062085f, -0.172041f, 0.189664f, 0.065071f, 0.637512f, -0.096761f, 0.277022f, 0.089952f, 0.347504f, 0.169972f, -0.217492f, 0.214224f, -0.102536f, -0.211437f, 0.359415f, -0.397408f, 0.444378f, 0.320399f, 0.266800f, 0.229549f, 0.167740f, -0.013086f, 0.294288f, -0.009048f, 0.058434f, -0.594167f, 0.007123f, -0.049512f, -0.164933f, 0.051095f, -0.394422f, -0.225779f, 0.093567f, -0.182146f, -0.057977f, -0.073235f, -0.266332f, -0.281327f, 0.157120f, -0.230485f, -0.000202f, 0.184582f, 0.030770f, 0.105527f, -0.089736f, -0.434163f, 0.196990f, -0.000508f, -0.104328f, -0.460923f, 0.194256f, -0.361737f, -0.343153f, -0.124672f, 0.047854f, 0.163825f, -0.109064f, -0.478931f, 0.320059f, -0.103028f, -0.322462f, 0.010759f, -0.150451f, 0.215978f, 0.035337f, -0.074663f, 0.146285f, -0.288622f, 0.392561f, 0.294823f, 0.092244f, 0.333318f, -0.258864f, -0.034435f, -0.071296f, 0.271743f, -0.366512f, 0.203184f, 0.466198f, 0.132658f, 0.067332f, 0.039616f, 0.211752f, 0.349203f, -0.240811f, 0.045968f, 0.279407f, 0.059260f, -0.017971f, 0.244703f, 0.075880f, -0.462280f, -0.147987f, -0.360738f, 0.015487f, -0.113459f, 0.066690f, -0.093829f, 0.016218f, -0.026245f, 0.346695f, -0.099766f, -0.014542f, -0.109988f, 0.300251f, 0.068072f, -0.203343f, -0.144942f, -0.273456f, -0.171613f, -0.371383f, 0.017591f, 0.439020f, -0.221953f, 0.061345f, 0.084346f, 0.125154f, -0.030166f, 0.096786f, 0.276016f, -0.026914f, -0.109228f, 0.016944f, -0.059428f, 0.383961f, -0.021230f, -0.300350f, -0.054605f, 0.059639f, 0.400933f, -0.151034f, -0.106764f, -0.340045f, -0.263068f, -0.247986f, 0.160202f, -0.012012f, -0.085277f, 0.203896f, 0.345395f, 0.117408f, -0.178487f, 0.217637f, -0.312187f, -0.071470f, -0.016514f, -0.086203f, -0.612121f, 0.080245f, -0.195620f, 0.331208f, -0.085000f, -0.024558f, -0.028458f, 0.296829f, 0.040304f, 0.244974f, -0.068408f, 0.216495f, -0.191580f, -0.128139f, 0.218451f, 0.093028f, 0.141448f, 0.133578f, 0.123413f, -0.127379f, -0.151832f, -0.187417f, -0.136756f, 0.020949f, -0.073158f, 0.091727f, -0.406334f, -0.057553f, 0.070198f, -0.350578f, -0.104870f, 0.011804f, 0.351294f, 0.268683f, -0.019602f, -0.256425f, 0.248201f, 0.107885f, -0.292850f, -0.110569f, -0.389746f, -0.524714f, 0.269739f, 0.158402f, 0.147704f, -0.222721f, -0.175861f, 0.131424f, -0.011445f, 0.434956f, 0.199460f, 0.347064f, 0.326715f, 0.362137f, 0.337409f, 0.101190f, -0.127424f, -0.042806f, 0.194471f, 0.097621f, -0.282252f, 0.179669f, 0.185830f, 0.201870f, 0.348815f, 0.202236f, -0.152230f, -0.086914f, 0.731096f, 0.175425f, -0.166655f, 0.099442f, -0.185036f, 0.250955f, -0.075115f, -0.219811f, 0.021525f, 0.237094f, -0.397866f, -0.260756f, 0.149192f, -0.123182f, 0.121927f, 0.282958f, -0.065745f, -0.008184f, -0.260613f, -0.028994f, 0.333629f, 0.244088f, 0.008479f, -0.314329f, -0.044052f, -0.037557f, 0.101894f, -0.131118f, -0.031305f, 0.442296f, 0.150021f, -0.188437f, 0.054029f, 0.093183f, 0.096523f, 0.091575f, -0.339567f, -0.179862f, 0.193187f, -0.051459f, -0.083950f, 0.113479f, 0.199440f, -0.247965f, 0.075557f, 0.382286f, -0.051876f, 0.411092f, 0.075753f, -0.033499f, -0.288532f, 0.320598f, -0.141997f, -0.250024f, -0.259743f, -0.003410f, -0.421441f, 0.023336f, 0.128421f, 0.361635f, 0.391851f, 0.085408f, -0.095130f, -0.098913f, -0.006327f, 0.160715f, -0.069940f, -0.538970f, -0.090814f, 0.273942f, -0.305994f, -0.183275f, -0.112488f, 0.258306f, 0.312363f, 0.184732f, -0.127205f, 0.063511f, -0.051254f, 0.304786f, 0.197244f, 0.087548f, -0.060232f, 0.069141f, -0.053659f, 0.011142f, -0.157617f, 0.047577f, 0.065688f, 0.180210f, 0.175445f, 0.029462f, 0.138140f, -0.120781f, -0.260580f, 0.161517f, 0.209331f, -0.102271f, -0.118245f, -0.059600f, 0.402865f, -0.170048f, 0.165395f, -0.065326f, 0.299175f, -0.113745f, 0.257471f, 0.311660f, -0.305078f, -0.239928f, -0.090770f, -0.446396f, -0.196374f, 0.006572f, -0.113783f, 0.306756f, -0.052366f, -0.021071f, 0.448742f, 0.217570f, 0.067745f, -0.079094f, -0.095560f, 0.043041f, -0.319392f, 0.130497f, 0.037844f, -0.511811f, -0.048514f, -0.041908f, 0.004875f, 0.381035f, 0.580986f, 0.015367f, -0.028491f, 0.383720f, 0.000378f, -0.253832f, -0.000100f, 0.201536f, 0.340982f, -0.193655f, -0.175640f, 0.153805f, 0.088308f, 0.085042f, 0.054893f, 0.086427f, -0.129004f, 0.049384f, 0.305206f, 0.282373f, 0.279850f, 0.080366f, -0.042801f, 0.144093f, 0.012096f, -0.050488f, 0.324078f, -0.021958f, 0.074883f, 0.101372f, -0.027732f, -0.313801f, 0.244326f, -0.180154f, 0.161295f, 0.168507f, 0.124228f, 0.079835f, -0.068897f, -0.038921f, 0.149339f, -0.370167f, 0.015658f, -0.093178f, -0.003894f, 0.389407f, -0.208049f, 0.188961f, -0.134177f, 0.270551f, 0.134036f, -0.063309f, 0.055966f, 0.046343f, 0.110927f, -0.129027f, -0.230677f, -0.354556f, 0.080347f, -0.106916f, -0.416916f, 0.301588f, 0.016954f, 0.269580f, -0.040635f, 0.201749f, 0.036641f, 0.074706f, -0.245090f, -0.296404f, 0.156482f, 0.284867f, 0.201447f, -0.533825f, -0.271281f, 0.358280f, -0.236800f, -0.297549f, 0.020210f, 0.042939f, 0.232117f, 0.026962f, -0.415997f, -0.075502f, -0.381664f, 0.060864f, -0.005257f, -0.289036f, 0.254113f, -0.063756f, -0.346861f, 0.074464f, -0.083158f, -0.137339f, -0.470976f, -0.234366f, -0.216367f, -0.402919f, -0.024634f, 0.403687f, -0.015122f, 0.318189f, 0.000254f, 0.199885f, 0.274895f, 0.020287f, -0.293860f, -0.181990f, -0.142379f, 0.048419f, -0.117061f, -0.509454f, -0.437544f, 0.149372f, -0.226906f, -0.074248f, -0.043489f, -0.138855f, 0.005115f, -0.127172f, 0.118634f, -0.136685f, 0.019678f, -0.267924f, -0.413088f, -0.033995f, 0.164653f, 0.132463f, 0.377288f, 0.383317f, 0.104497f, 0.227556f, -0.169144f, 0.160285f, -0.107556f, 0.371557f, 0.208234f, -0.013361f, 0.076093f, -0.120064f, 0.140018f, 0.041971f, -0.216642f, -0.508098f, 0.216334f, -0.320018f, 0.029070f, -0.335736f, -0.255473f, 0.090792f, 0.043893f, 0.033438f, 0.106536f, -0.113497f, 0.585255f, 0.210112f, 0.373623f, -0.025490f, 0.266138f, -0.720348f, -0.022473f, 0.018862f, 0.029444f, 0.337102f, 0.030210f, 0.213837f, -0.361799f, -0.068033f, -0.241810f, 0.363440f, 0.008614f, -0.016596f, -0.175158f, 0.009643f, -0.360330f, -0.031695f, 0.026213f, -0.016784f, -0.094564f, 0.273307f, -0.054043f, 0.023540f, 0.110526f, 0.061314f, 0.449747f, 0.042581f, -0.241775f, 0.198902f, 0.254656f, 0.171512f, 0.231510f, 0.016073f, -0.236769f, 0.166175f, -0.077331f, -0.042036f, -0.048733f, 0.402225f, -0.402214f, -0.126641f, -0.420310f, 0.266993f, -0.393862f, 0.367414f, 0.032933f, 0.427711f, -0.216029f, -0.069482f, -0.230381f, 0.226021f, -0.228823f, -0.036646f, -0.125161f, 0.056790f, 0.093081f, 0.129807f, 0.154126f, -0.089458f, 0.389319f, -0.428211f, -0.276383f, -0.174325f, 0.369374f, -0.005741f, 0.177948f, 0.078864f, -0.302026f, -0.154117f, -0.384703f, -0.094417f, -0.227377f, 0.314446f, 0.211676f, -0.093673f, 0.051818f, 0.378606f, 0.136803f, -0.040069f, -0.103527f, 0.227652f, 0.104830f, -0.111113f, 0.406841f, -0.759739f, 0.017854f, -0.221581f, -0.083712f, 0.287578f, 0.153352f, 0.227971f, -0.211756f, 0.032158f, -0.087744f, -0.007043f, 0.492979f, -0.120252f, -0.273687f, 0.048259f, 0.213222f, 0.296736f, 0.097099f, -0.290353f, -0.111385f, -0.076039f, -0.155724f, 0.179776f, -0.469423f, -0.298732f, 0.107095f, -0.068226f, -0.130511f, 0.007515f, -0.231784f, -0.102878f, -0.171391f, 0.226964f, 0.081268f, -0.164845f, -0.125965f, -0.124608f, -0.438633f, -0.175549f, -0.072388f, 0.041466f, 0.147635f, -0.090981f, 0.122641f, 0.153189f, 0.208635f, -0.227676f, -0.063021f, 0.064747f, 0.064273f, -0.233100f, -0.018098f, 0.307686f, -0.071499f, -0.304562f, -0.311318f, -0.003703f, -0.013848f, -0.058392f, 0.150394f, 0.240079f, -0.199132f, -0.010456f, 0.143583f, -0.067650f, 0.405165f, -0.130023f, 0.174741f, 0.065969f, -0.083249f, 0.042950f, -0.184835f, 0.244822f, -0.081838f, 0.233170f, 0.096781f, -0.443487f, 0.452178f, 0.011612f, 0.073706f, 0.007272f, -0.174969f, 0.043371f, -0.062020f, -0.008440f, 0.109706f, -0.071461f, 0.122838f, -0.261686f, 0.018042f, 0.000172f, 0.302717f, -0.322256f, -0.013759f, -0.141876f, -0.072863f, 0.014438f, 0.005549f, 0.217059f, 0.382520f, 0.089034f, -0.394385f, 0.080464f, -0.427608f, 0.076162f, 0.049665f, -0.401926f, 0.231890f, 0.039032f, 0.055079f, -0.342126f, -0.154815f, -0.042515f, -0.214947f, -0.140897f, -0.102044f, -0.007277f, 0.276513f, -0.368708f, -0.365128f, 0.236217f, 0.118183f, -0.278651f, -0.015748f, -0.070672f, 0.023697f, 0.391632f, 0.325314f, 0.440313f, -0.005399f, 0.069299f, 0.268180f, 0.023474f, -0.272931f, -0.126925f, -0.100883f, -0.345059f, 0.216453f, -0.315365f, 0.077226f, 0.145300f, 0.005915f, 0.225683f, 0.169376f, 0.170157f, 0.151526f, -0.410746f, 0.251302f, 0.007311f, 0.069836f, -0.126788f, -0.015581f, 0.098420f, 0.068111f, -0.093720f, 0.199916f, -0.009425f, -0.043705f, -0.142356f, 0.091267f, 0.151822f, -0.337354f, -0.216202f, 0.181879f, -0.140798f, 0.002995f, -0.083882f, -0.129271f, -0.078476f, 0.028847f, 0.029130f, -0.034816f, -0.263963f, -0.123845f, 0.071057f, -0.243880f, -0.317266f, 0.225632f, -0.031585f, 0.080633f, -0.141103f, -0.334059f, 0.078514f, -0.278132f, 0.241881f, 0.011350f, 0.471047f, 0.042581f, -0.047416f, -0.092532f, 0.319305f, 0.137789f, -0.311941f, 0.142837f, 0.171371f, -0.053492f, -0.348516f, -0.051419f, 0.311162f, -0.054034f, 0.155225f, 0.356413f, -0.030366f, -0.060945f, -0.414388f, 0.125759f, -0.044147f, -0.050461f, -0.399794f, -0.207997f, 0.037813f, -0.377658f, 0.413186f, 0.426990f, 0.298390f, -0.110667f, 0.037087f, -0.009784f, 0.206316f, 0.203899f, 0.077148f, 0.516360f, 0.129193f, 0.243977f, 0.152392f, -0.028051f, -0.233887f, -0.421496f, -0.049791f, 0.199950f, -0.245574f, -0.247207f, -0.355157f, 0.261893f, -0.376185f, -0.174181f, -0.149810f, -0.079092f, 0.189721f, -0.332901f, 0.038436f, 0.324972f, 0.007449f, 0.235695f, -0.264836f, -0.156773f, -0.332062f, -0.081344f, 0.189170f, 0.422188f, 0.293515f, 0.187087f, -0.424020f, -0.270446f, 0.006229f, -0.084806f, 0.053339f, 0.043125f, -0.364173f, 0.436555f, 0.132540f, -0.154302f, 0.089765f, -0.484186f, 0.227351f, 0.534733f, -0.306474f, 0.679025f, 0.022421f, 0.392520f, -0.028063f, 0.058866f, -0.118614f, 0.123650f, -0.063266f, 0.330962f, -0.346741f, 0.060341f, -0.373156f, -0.067805f, 0.041517f, 0.044377f, -0.222056f, -0.212497f, 0.222794f, 0.223432f, 0.156564f, 0.211228f, -0.124539f, 0.179525f, 0.366684f, 0.008335f, 0.095379f, -0.187333f, -0.116816f, 0.293123f, -0.123244f, 0.047077f, 0.424390f, -0.052328f, 0.158752f, -0.001327f, 0.277526f, -0.115202f, 0.152484f, -0.353260f, 0.396942f, -0.077809f, 0.440671f, 0.041897f, -0.045555f, 0.260389f, 0.211334f, -0.005301f, -0.252509f, -0.328727f, 0.209839f, 0.283361f, -0.122104f, 0.031918f, -0.170845f, -0.518548f, 0.372292f, 0.194216f, 0.234235f, 0.165335f, -0.033803f, 0.340102f, 0.389791f, -0.073998f, 0.260216f, -0.412336f, -0.276639f, -0.613552f, 0.040267f, 0.024759f, -0.007286f, -0.030619f, 0.260028f, 0.038673f, 0.162477f, 0.054908f, 0.086888f, 0.136074f, 0.050847f, 0.347679f, 0.014316f, -0.049396f, 0.072725f, -0.282209f, -0.163261f, -0.145291f, 0.033833f, 0.375718f, 0.137928f, -0.206780f, 0.148509f, -0.308561f, -0.171940f, -0.110039f, -0.201550f, -0.230173f, -0.338897f, -0.257148f, -0.250135f, -0.346461f, 0.311777f, -0.066847f, 0.042020f, -0.189313f, -0.279892f, -0.005153f, -0.232804f, -0.316052f, 0.287368f, 0.135983f, 0.065290f, 0.176495f, 0.007765f, -0.009469f, -0.231129f, 0.239784f, -0.209951f, -0.368753f, 0.049112f, -0.400951f, 0.441754f, 0.571361f, 0.043986f, 0.324817f, 0.145800f, -0.047430f, -0.297421f, -0.224373f, -0.082069f, -0.025953f, -0.081121f, -0.165557f, 0.154725f, -0.175198f, 0.304670f, -0.120929f, -0.020357f, -0.291201f, -0.038065f, 0.203396f, 0.068886f, -0.099752f, 0.353649f, -0.307202f, -0.087284f, -0.194343f, -0.026374f, 0.049936f, 0.283313f, 0.139671f, -0.142383f, -0.065297f, -0.051224f, -0.271082f, 0.205788f, 0.094529f, 0.368333f, -0.004965f, 0.099459f, -0.377697f, -0.398530f, -0.322969f, 0.162469f, -0.018379f, -0.009388f, -0.069359f, -0.047689f, -0.059206f, -0.349056f, 0.039929f, -0.067312f, -0.003702f, 0.211648f, 0.153074f, 0.036344f, 0.084026f, -0.149836f, -0.358584f, 0.113188f, -0.029416f, 0.192411f, -0.359426f, 0.050070f, -0.016346f, -0.195966f, -0.099833f, -0.148651f, 0.039026f, 0.109062f, 0.108739f, -0.007635f, 0.039287f, -0.193810f, 0.213027f, 0.011056f, 0.037181f, -0.099409f, 0.007452f, -0.044663f, -0.095208f, 0.060877f, -0.456232f, 0.483334f, 0.254321f, 0.113349f, -0.203190f, 0.374829f, -0.019891f, 0.224845f, -0.109751f, -0.189278f, 0.051539f, 0.032254f, 0.317098f, 0.287803f, -0.348160f, -0.042896f, 0.545100f, 0.129424f, -0.271520f, 0.177421f, 0.172994f, -0.173385f, 0.380630f, 0.132000f, 0.243051f, 0.277994f, 0.013598f, 0.173188f, 0.229719f, 0.023594f, -0.461634f, -0.040604f, 0.193562f, -0.105308f, 0.073460f, -0.468915f, 0.511942f, 0.082668f, 0.137394f, -0.154042f, -0.279709f, -0.305664f, -0.008816f, 0.101366f, -0.033183f, -0.145945f, 0.004918f, 0.035856f, -0.035025f, 0.205950f, 0.026234f, 0.046157f, -0.067739f, -0.014017f, -0.240964f, 0.006704f, -0.225096f, 0.544234f, 0.462110f, 0.180955f, -0.190521f, 0.072606f, 0.374284f, 0.041475f, 0.138586f, 0.650172f, -0.088939f, -0.213568f, 0.207036f, -0.221495f, -0.207371f, -0.189679f, 0.068100f, 0.166749f, -0.239919f, -0.107827f, -0.216009f, 0.232035f, -0.019257f, -0.186729f, 0.215681f, -0.109904f, 0.322303f, 0.114970f, 0.144664f, -0.152144f, -0.067589f, -0.415170f, -0.425336f, -0.263407f, 0.104542f, -0.510822f, -0.093636f, -0.070737f, 0.022020f, -0.065738f, 0.182220f, 0.040694f, -0.096448f, -0.294945f, -0.207931f, 0.083959f, -0.092840f, -0.156059f, 0.068174f, -0.403734f, 0.278844f, -0.184857f, -0.015435f, 0.150541f, -0.063194f, 0.126001f, -0.108042f, -0.243288f, 0.030365f, 0.030858f, -0.140076f, 0.078633f, 0.158278f, 0.045827f, -0.297054f, -0.038103f, -0.132996f, 0.405963f, -0.048326f, -0.424955f, 0.501417f, -0.033736f, -0.255215f, -0.296396f, 0.249933f, 0.271957f, -0.081386f, 0.557599f, -0.026632f, -0.430390f, 0.093997f, -0.115139f, -0.030233f, -0.045316f, -0.098500f, -0.202518f, 0.077716f, 0.019533f, -0.410971f, 0.648938f, 0.169123f, 0.037418f, -0.118273f, 0.166502f, 0.188436f, 0.308515f, -0.010225f, 0.278228f, 0.167693f, -0.265859f, -0.083832f, -0.005881f, -0.053651f, 0.243358f, 0.168829f, -0.091147f, 0.117498f, -0.426210f, 0.429326f, -0.209579f, -0.240217f, 0.171533f, 0.112058f, 0.261232f, 0.035844f, 0.271179f, 0.108643f, -0.208283f, 0.406427f, -0.391876f, -0.095737f, 0.331753f, -0.029099f, 0.141486f, -0.109407f, 0.081899f, -0.128018f, -0.482974f, 0.079857f, 0.001646f, 0.326556f, 0.118345f, -0.109479f, 0.361434f, -0.180630f, -0.365509f, 0.238960f, -0.004953f, -0.464338f, -0.002960f, -0.054196f, -0.204650f, 0.461942f, 0.224178f, 0.188494f, -0.001225f, 0.136304f, -0.107578f, -0.304944f, 0.062231f, 0.126749f, -0.144657f, 0.337290f, 0.275393f, -0.139269f, 0.224399f, -0.080797f, 0.224347f, -0.137539f, 0.062315f, 0.258296f, -0.261660f, -0.085588f, 0.352662f, -0.297432f, 0.293277f, 0.050757f, -0.001008f, 0.312336f, 0.095026f, 0.403124f, 0.286059f, 0.374247f, -0.347959f, 0.189194f, 0.132331f, 0.214385f, -0.316511f, 0.063285f, 0.330638f, -0.028274f, 0.182596f, -0.269192f, -0.303048f, 0.135726f, -0.119464f, 0.074514f, 0.319521f, -0.293002f, -0.008566f, 0.606731f, -0.207773f, 0.022756f, -0.002552f, -0.021815f, 0.015969f, -0.158337f, 0.177214f, -0.283353f, -0.008851f, 0.402935f, -0.081792f, -0.300138f, 0.005641f, -0.006296f, 0.535259f, -0.172052f, -0.140830f, -0.362118f, 0.225998f, 0.132095f, 0.232453f, 0.120068f, -0.131268f, -0.014747f, 0.518029f, -0.236511f, -0.205068f, -0.035985f, 0.077957f, -0.044561f, -0.036664f, -0.033927f, -0.481517f, -0.101821f, 0.454943f, -0.177804f, -0.194738f, 0.092476f, -0.116393f, -0.262889f, 0.188819f, 0.036721f, 0.103804f, -0.109118f, 0.494477f, -0.389851f, 0.496686f, 0.079754f, -0.017409f, -0.046874f, 0.081094f, -0.243827f, -0.016388f, -0.003021f, -0.006817f, -0.020204f, -0.175494f, -0.331760f, -0.084359f, 0.030191f, -0.081678f, -0.139118f, 0.099993f, 0.068914f, -0.096610f, 0.305649f, 0.016313f, -0.270406f, -0.175800f, 0.024742f, -0.126125f, 0.040709f, 0.443739f, -0.271715f, -0.031407f, -0.113713f, -0.289603f, 0.319184f, 0.073030f, 0.340424f, 0.202822f, 0.215840f, 0.078304f, -0.324921f, 0.197142f, -0.085139f, -0.459592f, -0.041999f, 0.131604f, -0.387763f, 0.409243f, -0.321477f, 0.047436f, -0.108286f, 0.251799f, -0.059424f, -0.204263f, 0.159601f, 0.371796f, -0.055755f, 0.259435f, 0.013238f, -0.079265f, 0.144486f, -0.105413f, 0.110610f, -0.225784f, -0.140660f, -0.214564f, -0.040657f, -0.203732f, -0.181505f, -0.332984f, -0.061960f, 0.029251f, -0.140369f, 0.012529f, -0.138420f, -0.150807f, 0.261743f, -0.130767f, -0.080691f, 0.225494f, 0.409788f, -0.546383f, -0.238043f, -0.362646f, -0.032683f, 0.175936f, 0.123839f, -0.199503f, 0.153138f, 0.317929f, 0.033035f, 0.410593f, 0.000229f, 0.189063f, -0.071101f, -0.042325f, -0.193111f, -0.030441f, -0.368400f, -0.334373f, 0.299662f, -0.099151f, -0.399226f, 0.003813f, -0.086907f, 0.175319f, 0.282396f, 0.107228f, -0.130734f, -0.070942f, 0.050880f, 0.563471f, -0.061883f, -0.101470f, 0.107410f, -0.387048f, 0.357849f, 0.012429f, -0.154896f, 0.221609f, -0.250316f, -0.200300f, 0.062563f, -0.305693f, -0.056598f, 0.414012f, -0.099778f, -0.148761f, -0.107204f, 0.379687f, -0.306138f, -0.040179f, -0.329225f, -0.296421f, 0.009244f, -0.183983f, -0.285161f, -0.416528f, 0.330551f, -0.069871f, 0.047280f, 0.308838f, -0.206398f, 0.231849f, 0.237148f, -0.004061f, 0.219639f, 0.350257f, 0.187009f, -0.087427f, 0.069402f, -0.232330f, 0.201409f, -0.095718f, -0.050753f, -0.226872f, 0.414842f, -0.056453f, 0.109374f, -0.074965f, 0.105298f, -0.197875f, -0.063171f, 0.183651f, 0.116419f, -0.008777f, -0.270255f, -0.155368f, -0.358135f, -0.240782f, -0.272304f, -0.182359f, 0.011476f, -0.107480f, -0.215756f, 0.090228f, -0.064114f, 0.100622f, -0.180074f, 0.073859f, 0.089784f, 0.061469f, 0.007660f, 0.409281f, -0.244183f, 0.477230f, -0.082921f, 0.283317f, 0.053026f, -0.173239f, 0.033430f, 0.098741f, -0.176064f, 0.063618f, 0.378642f, -0.061921f, -0.034299f, 0.478456f, -0.564535f, 0.047336f, 0.550800f, 0.343413f, -0.010176f, 0.001659f, -0.468437f, 0.395517f, -0.129302f, -0.013099f, 0.155799f, -0.422190f, 0.026015f, 0.129099f, 0.027227f, 0.263012f, -0.560657f, -0.042411f, -0.074518f, -0.075118f, -0.581130f, 0.265685f, -0.017250f, 0.090733f, 0.028848f, -0.146238f, 0.016668f, -0.034078f, 0.038881f, -0.081704f, -0.031111f, 0.009051f, 0.034119f, 0.014758f, -0.230199f, -0.043445f, 0.401166f, 0.121734f, -0.266643f, -0.233869f, 0.106070f, -0.121532f, 0.000304f, 0.288925f, 0.041070f, 0.096481f, 0.292263f, -0.184429f, -0.235832f, 0.052162f, 0.311684f, -0.241462f, -0.159308f, 0.138572f, -0.028745f, -0.491524f, -0.077339f, 0.127308f, 0.152599f, 0.208042f, 0.350509f, 0.123220f, 0.474008f, -0.294185f, -0.143023f, 0.031164f, -0.085061f, 0.112419f, 0.052580f, -0.071821f, 0.076947f, -0.116834f, -0.070964f, 0.064937f, -0.127369f, -0.078300f, 0.130664f, 0.108872f, 0.059816f, 0.334856f, -0.036566f, -0.209803f, -0.059129f, 0.005674f, 0.160787f, -0.103948f, -0.250024f, -0.435950f, -0.206969f, -0.023780f, -0.068376f, 0.433125f, -0.191466f, -0.069901f, 0.527755f, 0.584115f, 0.065995f, 0.078033f, -0.501061f, -0.550769f, -0.024871f, -0.252077f, 0.138002f, -0.103107f, 0.244582f, -0.061916f, -0.063788f, 0.009965f, -0.133801f, -0.021788f, -0.406284f, -0.079124f, 0.012154f, 0.241091f, -0.114491f, -0.196089f, -0.242103f, 0.407996f, 0.278563f, -0.268167f, -0.214495f, 0.018870f, -0.122548f, 0.200505f, 0.022933f, 0.060515f, 0.033399f, -0.201569f, 0.126757f, 0.138492f, -0.088657f, 0.062327f, -0.044349f, -0.352929f, -0.061736f, 0.266299f, -0.128462f, -0.320560f, -0.028762f, -0.205020f, -0.080671f, 0.219040f, 0.035329f, 0.178292f, 0.458114f, -0.060046f, 0.142889f, -0.140924f, -0.044397f, -0.223010f, -0.025242f, -0.304195f, 0.149926f, 0.099361f, 0.157549f, 0.053159f, -0.172322f, -0.218656f, 0.237827f, 0.347603f, -0.124315f, 0.013532f, -0.132787f, 0.034851f, -0.112084f, -0.092679f, 0.094113f, 0.113651f, -0.038000f, 0.282339f, -0.621406f, -0.106446f, -0.412215f, -0.007083f, -0.268037f, 0.191252f, 0.644919f, -0.179585f, 0.135691f, 0.066541f, -0.142293f, -0.297068f, 0.307563f, 0.281047f, 0.020536f, -0.211051f, -0.272924f, 0.356040f, -0.042719f, -0.100371f, 0.069972f, 0.439802f, 0.073932f, 0.132583f, -0.189956f, -0.038169f, -0.182561f, 0.305784f, -0.014373f, -0.064677f, 0.038152f, -0.060168f, -0.102344f, 0.201623f, -0.005563f, 0.236517f, 0.032325f, 0.103263f, -0.284512f, -0.068112f, -0.157360f, 0.195161f, 0.510388f, -0.331682f, 0.024088f, -0.018683f, -0.021408f, 0.102215f, 0.227439f, 0.125182f, -0.049365f, -0.019056f, 0.087371f, -0.231264f, 0.340786f, -0.115667f, 0.022059f, -0.043866f, 0.350355f, 0.081065f, -0.202440f, 0.252340f, -0.584524f, -0.257441f, -0.266389f, 0.147011f, -0.222117f, -0.401024f, -0.013139f, -0.015288f, 0.152880f, -0.059409f, 0.055154f, -0.042404f, -0.472701f, 0.221377f, 0.418009f, -0.108259f, 0.439439f, 0.654871f, -0.110444f, 0.159974f, 0.201582f, 0.398440f, 0.049600f, -0.410161f, -0.205588f, 0.610659f, 0.113412f, -0.166017f, -0.016382f, -0.169702f, -0.139015f, 0.261714f, 0.004492f, 0.036661f, -0.118984f, -0.327170f, -0.446934f, 0.329621f, 0.594564f, -0.040460f, -0.512970f, -0.456750f, -0.079618f, -0.192696f, 0.042536f, -0.215540f, -0.553900f, -0.189262f, -0.208546f, 0.105775f, -0.465374f, 0.109499f, -0.003215f, -0.261938f, -0.339352f, -0.067643f, -0.194744f, 0.243969f, 0.137562f, 0.512324f, 0.040039f, 0.389983f, -0.188471f, -0.007811f, -0.348091f, -0.061964f, -0.302341f, 0.264213f, -0.079588f, 0.037989f, -0.362302f, -0.087673f, -0.003529f, 0.337090f, 0.314755f, 0.076734f, 0.106241f, 0.285556f, 0.074160f, -0.106578f, 0.159425f, 0.301193f, -0.046534f, -0.708417f, 0.257795f, -0.451702f, 0.178422f, -0.098333f, -0.018313f, 0.256126f, 0.003729f, 0.286728f, 0.042919f, 0.020414f, -0.114730f, 0.249977f, 0.128051f, -0.313693f, 0.137377f, -0.075752f, 0.014306f, -0.007161f, -0.112872f, -0.119619f, 0.187674f, 0.015421f, 0.532874f, -0.037074f, 0.227569f, 0.158210f, -0.016272f, 0.213309f, 0.107655f, 0.333070f, -0.353542f, 0.056659f, -0.457212f, -0.165611f, 0.234076f, -0.340211f, 0.286710f, 0.195419f, 0.027718f, 0.330778f, 0.246057f, 0.179126f, 0.062144f, -0.408604f, -0.007019f, -0.437746f, 0.091438f, 0.147641f, 0.078532f, 0.288784f, 0.078914f, 0.197553f, -0.388012f, -0.150572f, -0.084038f, -0.503842f, -0.027541f, 0.132890f, 0.106228f, -0.212261f, -0.051908f, -0.216663f, -0.348517f, 0.175601f, 0.413793f, -0.041056f, -0.008881f, -0.150072f, 0.165429f, -0.066208f, -0.215476f, -0.282654f, 0.376295f, 0.040129f, -0.064768f, -0.336826f, -0.239126f, -0.287211f, 0.094008f, 0.029672f, -0.373565f, 0.265986f, 0.031584f, -0.634722f, -0.176914f, -0.393739f, -0.155108f, -0.178274f, -0.363998f, 0.152757f, -0.038883f, -0.129008f, -0.231471f, -0.073268f, -0.423726f, -0.205772f, 0.023697f, 0.134994f, -0.090737f, 0.187404f, -0.247730f, 0.446908f, -0.093456f, -0.292719f, 0.357373f, 0.162082f, -0.212196f, 0.212279f, 0.481756f, -0.090744f, -0.223541f, 0.215300f, 0.287278f, 0.198454f, -0.226681f, -0.015830f, 0.143110f, -0.500513f, -0.000753f, 0.170185f, 0.282550f, -0.326975f, -0.239330f, -0.252339f, -0.092970f, 0.018807f, 0.319096f, -0.289736f, -0.608432f, -0.108884f, 0.175304f, 0.319803f, 0.049092f, 0.072566f, 0.390057f, -0.305150f, -0.072910f, 0.421037f, -0.138556f, -0.012585f, -0.293494f, -0.153008f, -0.266626f, 0.207086f, 0.053145f, 0.293289f, 0.359888f, 0.040538f, -0.092471f, 0.193787f, 0.030262f, -0.259343f, 0.119934f, -0.326697f, -0.106998f, -0.444288f, 0.085973f, 0.049210f, 0.137362f, -0.438690f, -0.052203f, -0.205881f, -0.128027f, -0.407260f, 0.124517f, 0.193187f, 0.407166f, -0.281651f, 0.212905f, 0.120351f, 0.418997f, -0.045386f, -0.201482f, -0.123695f, 0.431554f, 0.111317f, -0.152250f, 0.232057f, -0.222491f, -0.166787f, 0.258881f, 0.128355f, -0.324226f, -0.184326f, -0.519457f, 0.086138f, 0.310337f, -0.173907f, 0.494370f, 0.135446f, 0.109197f, -0.122857f, -0.008991f, 0.090325f, 0.621963f, -0.016755f, 0.232186f, -0.000718f, 0.292196f, 0.292037f, -0.037706f, 0.191198f, -0.550251f, 0.327374f, -0.141671f, 0.281715f, 0.126262f, -0.097537f, -0.476414f, 0.112172f, -0.265409f, 0.149231f, -0.398469f, -0.000130f, -0.035460f, 0.245736f, -0.021564f, -0.287850f, -0.139798f, 0.318743f, -0.103487f, -0.050680f, 0.156900f, -0.486658f, -0.158110f, 0.230027f, -0.362433f, -0.231784f, 0.146173f, 0.037690f, 0.209226f, 0.471918f, 0.048488f, 0.431043f, 0.260665f, -0.039114f, -0.697474f, -0.226092f, 0.334633f, -0.116461f, -0.626313f, -0.068792f, -0.016212f, -0.226606f, -0.098641f, 0.286234f, -0.152313f, -0.102248f, 0.137549f, 0.316950f, 0.152132f, 0.261884f, -0.186581f, 0.004902f, -0.087776f, -0.021417f, 0.376564f, -0.051058f, -0.001026f, -0.035876f, -0.557422f, -0.373513f, -0.140877f, 0.230235f, -0.106903f, 0.183355f, -0.242699f, 0.024109f, 0.266282f, -0.056606f, -0.251838f, -0.045279f, -0.255517f, -0.471711f, -0.157927f, 0.236870f, 0.194832f, 0.052914f, 0.291685f, -0.230477f, 0.120039f, 0.372947f, -0.286529f, 0.256906f, -0.044097f, -0.172527f, 0.062218f, 0.073975f, 0.141318f, 0.223769f, -0.271594f, -0.341627f, -0.066176f, 0.367776f, 0.303412f, -0.187275f, -0.124678f, 0.369849f, 0.107676f, -0.436188f, -0.068842f, -0.221774f, 0.395554f, 0.262594f, -0.135509f, -0.054343f, 0.216333f, -0.025899f, -0.058031f, -0.182010f, -0.268299f, -0.435741f, 0.035461f, 0.141893f, -0.204897f, 0.536040f, -0.056023f, 0.060484f, -0.073579f, 0.112289f, -0.362856f, -0.398680f, 0.338838f, 0.098233f, 0.423276f, -0.158034f, -0.190471f, 0.281383f, -0.299882f, 0.055807f, -0.004516f, -0.153661f, -0.149758f, 0.400068f, -0.290554f, 0.441392f, 0.001791f, -0.029103f, 0.342178f, -0.058483f, -0.131036f, -0.015288f, -0.057511f, 0.053458f, 0.159559f, 0.273304f, 0.350493f, 0.340340f, 0.080078f, 0.086868f, 0.193578f, -0.486445f, 0.037608f, 0.011978f, -0.277075f, -0.103130f, -0.308145f, 0.369195f, 0.660047f, 0.042031f, -0.250440f, -0.121241f, -0.345628f, 0.202692f, 0.163947f, -0.061469f, 0.084070f, 0.186167f, -0.249244f, 0.384483f, 0.264095f, 0.130268f, 0.046751f, -0.145384f, 0.303968f, 0.181960f, -0.292162f, -0.277171f, -0.229791f, 0.176537f, -0.025787f, 0.130064f, -0.036831f, 0.629347f, -0.208532f, 0.173196f, -0.343898f, -0.157085f, 0.433574f, -0.012679f, 0.041094f, 0.204471f, -0.157439f, 0.207437f, -0.075672f, -0.103616f, -0.096290f, 0.096928f, -0.074061f, 0.180708f, -0.165051f, 0.360273f, -0.068632f, 0.356443f, 0.449124f, -0.216276f, -0.055126f, 0.029036f, 0.057588f, -0.226509f, 0.665363f, -0.159939f, -0.099726f, -0.096708f, -0.116147f, -0.324381f, 0.280509f, 0.193618f, 0.045205f, 0.021153f, -0.128639f, -0.433186f, 0.454958f, -0.242009f, 0.123151f, -0.183740f, 0.037138f, 0.158362f, -0.210831f, 0.262545f, 0.142864f, 0.064241f, 0.074625f, -0.012341f, 0.005576f, 0.132491f, -0.219849f, 0.101653f, 0.128979f, 0.261108f, 0.030673f, -0.190284f, 0.001354f, 0.103508f, 0.044241f, -0.090981f, -0.019715f, 0.055222f, 0.345293f, 0.117076f, -0.046661f, -0.190853f, -0.274853f, 0.034218f, -0.298444f, 0.249026f, 0.214794f, -0.349666f, 0.274297f, -0.506728f, 0.266526f, 0.416514f, 0.459553f, -0.346686f, 0.254154f, 0.127510f, -0.365298f, 0.201089f, 0.144524f, -0.114572f, 0.186489f, -0.096167f, -0.177899f, 0.722438f, 0.002970f, 0.561836f, 0.068340f, 0.399117f, -0.064032f, 0.354311f, -0.104896f, 0.295072f, 0.075159f, 0.011128f, -0.397044f, -0.125180f, 0.042063f, 0.217045f, 0.325689f, 0.377595f, -0.551578f, -0.308659f, 0.342267f, 0.432267f, -0.338742f, 0.088529f, 0.581226f, 0.354013f, -0.127337f, 0.013151f, 0.387688f, -0.164204f, 0.033082f, -0.355635f, 0.288258f, -0.145233f, 0.041531f, 0.335239f, -0.568978f, -0.192009f, -0.243679f, 0.198482f, -0.290710f, 0.248953f, -0.337474f, -0.203097f, -0.092422f, 0.004818f, -0.592481f, 0.207213f, -0.028158f, -0.203791f, 0.108841f, -0.063474f, 0.082694f, -0.097306f, 0.146067f, -0.246866f, 0.213355f, -0.123005f, -0.665613f, 0.064734f, -0.258999f, 0.520770f, -0.061690f, -0.147966f, -0.095343f, 0.491314f, 0.073348f, -0.041003f, 0.060304f, 0.431654f, -0.161734f, 0.268147f, 0.098613f, 0.365395f, -0.192106f, -0.022772f, -0.082303f, -0.542882f, -0.238346f, -0.078228f, 0.153856f, -0.105457f, 0.359902f, -0.157047f, 0.344757f, -0.121232f, -0.013765f, -0.108525f, 0.029007f, 0.156101f, 0.457507f, 0.020846f, -0.012565f, -0.465832f, -0.050813f, -0.116659f, -0.381231f, 0.217104f, -0.016263f, 0.452272f, -0.431478f, 0.258926f, 0.426680f, 0.164641f, 0.130485f, 0.191489f, 0.145109f, 0.126114f, -0.373538f, 0.095196f, -0.222902f, 0.056362f, -0.141500f, -0.067007f, -0.282808f, 0.248032f, 0.267380f, 0.274025f, -0.225857f, 0.041801f, -0.265275f, -0.362814f, -0.292289f, 0.068015f, -0.005093f, 0.227103f, 0.014793f, 0.281943f, 0.040069f, -0.585004f, -0.268371f, 0.638834f, 0.081111f, -0.150088f, 0.288135f, 0.041067f, -0.282652f, 0.371124f, -0.558708f, -0.199572f, -0.292940f, -0.061140f, 0.282833f, 0.309108f, 0.136946f, 0.059014f, -0.105354f, 0.077939f, -0.319220f, 0.356449f, 0.274166f, 0.357720f, -0.186863f, -0.164255f, 0.308847f, 0.085538f, -0.535166f, 0.199307f, -0.247583f, -0.370191f, -0.484962f, -0.314663f, 0.203335f, 0.276777f, -0.619158f, 0.016581f, -0.106922f, 0.430036f, 0.104579f, 0.597206f, -0.468419f, -0.170763f, -0.190143f, 0.140450f, 0.306442f, 0.043972f, 0.142448f, -0.034295f, -0.189462f, -0.172194f, 0.168661f, -0.247840f, 0.425238f, 0.016397f, -0.072757f, 0.037334f, -0.002128f, 0.211009f, 0.094220f, -0.065289f, -0.130746f, 0.148670f, -0.013882f, -0.026889f, -0.060377f, 0.269460f, -0.394661f, 0.023557f, 0.092731f, 0.603185f, -0.152250f, -0.205848f, 0.007219f, 0.222209f, -0.185998f, 0.359489f, -0.357876f, -0.092990f, -0.258183f, 0.032622f, -0.031143f, 0.563954f, 0.177139f, -0.078562f, -0.127829f, 0.075071f, 0.120113f, 0.228946f, -0.184046f, 0.105006f, -0.033944f, 0.265586f, -0.230082f, 0.301789f, -0.070966f, 0.085662f, 0.089468f, 0.081055f, -0.302041f, 0.075326f, -0.527697f, 0.460557f, 0.354768f, 0.156601f, -0.090217f, -0.281503f, 0.292269f, -0.054174f, 0.077790f, -0.274840f, -0.177446f, 0.023297f, -0.060003f, 0.063886f, -0.015573f, -0.305816f, 0.116750f, -0.032242f, 0.423559f, 0.158804f, 0.223616f, -0.160058f, 0.034575f, -0.526462f, -0.462202f, -0.084058f, -0.180213f, 0.063540f, 0.105726f, -0.043389f, -0.195099f, -0.116776f, -0.093679f, -0.131521f, 0.225511f, 0.114812f, -0.022203f, 0.423302f, 0.008684f, 0.019067f, -0.232321f, 0.297621f, -0.004335f, 0.137904f, -0.188039f, 0.312361f, 0.227644f, 0.303501f, 0.035698f, -0.117118f, 0.604868f, -0.007456f, 0.328955f, -0.253226f, 0.267734f, 0.067335f, -0.005250f, 0.082173f, -0.356976f, 0.140900f, 0.188175f, 0.149367f, 0.123571f};

/* shape: (64,) */
static const float bias_2[64] = {0.120855f, -0.065590f, 0.048940f, -0.045242f, -0.086568f, -0.038210f, -0.023524f, 0.055890f, -0.070715f, 0.060713f, -0.087898f, -0.051596f, 0.002477f, -0.025944f, -0.012284f, -0.182213f, -0.101977f, 0.007983f, -0.036479f, -0.012709f, 0.003542f, -0.090762f, 0.059627f, -0.022419f, 0.055117f, -0.066292f, 0.144020f, 0.014223f, -0.012551f, -0.061084f, -0.093107f, 0.085724f, 0.012403f, -0.094283f, -0.029248f, -0.087038f, 0.064673f, 0.041480f, 0.123388f, 0.083527f, 0.047752f, -0.051640f, 0.015049f, 0.207235f, -0.038429f, 0.105134f, -0.082525f, 0.037592f, -0.103834f, 0.006052f, -0.179010f, 0.123601f, 0.000677f, 0.256367f, -0.126067f, -0.021121f, 0.092298f, 0.003158f, -0.066441f, 0.050173f, -0.031897f, 0.040933f, 0.104576f, 0.038345f};

/* shape: (10, 64) */
static const float action_weight[640] = {0.049947f, -0.038629f, -0.089568f, 0.108572f, 0.061779f, -0.062796f, 0.015840f, -0.096869f, 0.233409f, 0.143310f, 0.037108f, 0.121572f, -0.084562f, 0.010083f, 0.225028f, 0.095667f, 0.027307f, 0.366273f, 0.031239f, -0.138846f, 0.091557f, 0.151413f, 0.180685f, 0.019201f, 0.142906f, -0.133459f, -0.017930f, 0.015207f, -0.129992f, -0.144762f, -0.198234f, 0.094423f, 0.146751f, 0.105064f, -0.044473f, -0.080078f, 0.062332f, 0.090965f, -0.148225f, -0.081581f, -0.223573f, 0.079245f, 0.018696f, -0.035360f, 0.234315f, 0.041834f, 0.267693f, -0.220590f, 0.105808f, 0.214959f, -0.005015f, 0.092530f, -0.159388f, -0.035986f, -0.033765f, -0.084639f, -0.307707f, -0.102315f, 0.169989f, -0.040988f, -0.142832f, -0.088826f, 0.187757f, 0.041698f, 0.031064f, 0.029245f, 0.100377f, -0.159360f, -0.017907f, 0.172936f, -0.068136f, 0.032449f, -0.115207f, -0.308805f, 0.114876f, 0.014314f, 0.185137f, -0.049747f, -0.231074f, 0.063369f, 0.072322f, -0.269085f, 0.025069f, 0.043120f, -0.152521f, -0.105777f, -0.063588f, -0.099218f, -0.168773f, 0.225131f, -0.142451f, -0.078756f, 0.229986f, 0.228985f, -0.004117f, -0.276879f, -0.002968f, 0.023274f, 0.117465f, -0.035823f, -0.096256f, -0.082096f, -0.102516f, -0.079437f, 0.278639f, -0.085508f, 0.106658f, -0.018569f, -0.227430f, 0.009108f, -0.138956f, 0.102638f, -0.095063f, -0.107153f, -0.038988f, -0.048570f, 0.297106f, 0.007586f, 0.130667f, 0.071980f, 0.165373f, 0.020961f, -0.209723f, -0.086241f, -0.020380f, 0.075410f, -0.287187f, -0.268950f, -0.168109f, 0.124519f, -0.026646f, -0.095904f, 0.087484f, 0.168055f, -0.006126f, -0.125545f, -0.131331f, -0.004991f, 0.002284f, 0.156789f, -0.138729f, 0.028808f, -0.055619f, 0.208103f, 0.298518f, 0.035189f, 0.093101f, 0.013785f, -0.016175f, -0.022302f, -0.014464f, 0.275197f, -0.232876f, -0.022316f, 0.014821f, -0.013947f, -0.064423f, 0.075681f, 0.114324f, -0.131553f, 0.090801f, 0.132312f, 0.068497f, 0.221442f, 0.191692f, -0.009961f, -0.001626f, 0.047405f, -0.089455f, 0.127134f, 0.090481f, -0.037084f, 0.039272f, -0.026673f, 0.015588f, -0.074333f, 0.043071f, -0.043684f, 0.217108f, -0.159545f, 0.051698f, -0.234792f, 0.179657f, -0.008406f, -0.038764f, 0.157025f, 0.093752f, -0.223125f, 0.070467f, 0.075824f, -0.073322f, -0.159492f, 0.036522f, 0.002503f, 0.068937f, -0.038095f, -0.121287f, -0.097513f, 0.045888f, 0.213035f, 0.106105f, 0.079376f, -0.122808f, -0.089582f, 0.056850f, -0.077574f, -0.068047f, -0.213129f, -0.216968f, -0.107566f, 0.076350f, 0.055711f, -0.122794f, -0.143136f, -0.067172f, -0.206576f, -0.011830f, -0.025015f, 0.132644f, 0.012766f, 0.011764f, -0.087299f, 0.104127f, 0.103711f, 0.034998f, -0.022859f, -0.013289f, 0.003474f, 0.162603f, -0.179492f, 0.020868f, 0.127125f, 0.023327f, -0.123048f, 0.040543f, 0.171743f, -0.037297f, 0.132708f, -0.143182f, -0.080506f, 0.001701f, 0.033169f, -0.095402f, 0.158721f, -0.030698f, 0.128873f, -0.147291f, -0.238054f, 0.194195f, -0.020529f, -0.063560f, 0.154706f, 0.041771f, -0.036346f, 0.103994f, 0.006724f, -0.331400f, 0.172591f, -0.145754f, -0.010176f, -0.020628f, 0.019177f, 0.204969f, -0.118583f, 0.139471f, -0.118059f, 0.363996f, 0.119143f, 0.165659f, 0.097278f, 0.078529f, 0.284423f, 0.275483f, 0.109623f, -0.110372f, 0.004728f, -0.025013f, -0.072243f, -0.071264f, 0.118892f, -0.140702f, 0.006947f, -0.206217f, -0.314472f, 0.115470f, 0.064414f, 0.155228f, -0.170300f, -0.145778f, 0.018229f, 0.145640f, 0.205241f, -0.070145f, -0.054600f, -0.216918f, -0.049743f, -0.148666f, 0.007335f, 0.083672f, -0.230748f, -0.092094f, -0.175495f, -0.004996f, -0.111876f, 0.124199f, 0.117485f, 0.161132f, -0.246793f, 0.005737f, -0.265480f, 0.236111f, -0.181128f, -0.106788f, -0.034798f, -0.051717f, -0.211423f, 0.253654f, -0.251503f, 0.067203f, -0.001376f, 0.101463f, -0.166033f, -0.000533f, -0.043438f, 0.079291f, -0.017266f, -0.128959f, -0.024781f, -0.195413f, 0.114111f, -0.186742f, -0.167950f, -0.005842f, -0.138311f, -0.108532f, -0.061405f, -0.056373f, -0.073272f, -0.180830f, -0.077831f, 0.070939f, 0.023575f, 0.168663f, 0.006196f, 0.117979f, 0.029636f, 0.134602f, 0.046769f, -0.041710f, -0.087415f, -0.163310f, 0.194133f, -0.027258f, -0.144840f, -0.113448f, -0.141468f, -0.027460f, 0.094983f, 0.225269f, 0.017410f, 0.018086f, 0.102813f, -0.236612f, 0.084104f, -0.032710f, 0.106089f, 0.017379f, 0.172747f, -0.118509f, -0.108153f, -0.146189f, 0.165669f, 0.092503f, 0.119646f, -0.191127f, 0.257221f, 0.116793f, -0.132730f, -0.067032f, 0.224677f, -0.229498f, 0.355832f, 0.060269f, 0.062756f, 0.040083f, 0.275205f, -0.174332f, -0.013229f, -0.055154f, -0.122781f, 0.144725f, 0.030116f, -0.102700f, -0.002063f, -0.154060f, 0.187099f, 0.098713f, 0.188709f, 0.006466f, 0.010093f, -0.061786f, 0.133350f, -0.146842f, -0.113872f, 0.055806f, -0.097215f, 0.004666f, 0.060463f, 0.110334f, 0.064834f, 0.140123f, -0.008398f, -0.064916f, -0.110370f, 0.157813f, 0.002041f, -0.205116f, -0.117864f, 0.049899f, 0.028089f, 0.143280f, -0.071437f, 0.102266f, -0.025882f, -0.053910f, 0.157268f, -0.085119f, 0.128930f, 0.002149f, -0.155073f, 0.022532f, -0.147639f, -0.062588f, -0.165004f, 0.035491f, -0.309478f, -0.267944f, 0.058901f, 0.139788f, -0.077929f, -0.091776f, 0.342347f, 0.265459f, -0.167048f, 0.050704f, -0.287040f, -0.121554f, 0.176165f, 0.034371f, -0.067219f, 0.085181f, 0.145233f, -0.185715f, 0.070417f, -0.087560f, 0.068709f, -0.127119f, -0.008249f, 0.101940f, -0.006756f, -0.237482f, 0.124630f, 0.103981f, -0.040051f, -0.021312f, 0.028896f, 0.139430f, 0.011759f, 0.252895f, 0.218273f, -0.164141f, 0.030933f, 0.103462f, -0.011480f, -0.114023f, 0.125924f, -0.088600f, 0.180473f, -0.036179f, 0.005699f, 0.049304f, -0.051271f, -0.037874f, -0.008804f, -0.402503f, 0.347543f, 0.050856f, -0.051236f, 0.098041f, -0.094296f, -0.002411f, -0.081192f, 0.051935f, -0.154886f, 0.095669f, 0.256573f, 0.264348f, 0.009355f, -0.006923f, 0.057199f, -0.059180f, 0.035897f, -0.065849f, 0.050819f, -0.026408f, -0.192313f, -0.110116f, 0.044805f, 0.151122f, 0.015509f, 0.129148f, 0.021818f, -0.047086f, -0.083078f, 0.051077f, 0.027132f, 0.110481f, 0.021074f, -0.143081f, -0.182111f, 0.145831f, -0.030049f, 0.093014f, -0.012105f, -0.095660f, -0.117864f, 0.125524f, -0.042227f, 0.024805f, 0.051008f, 0.082612f, 0.125659f, -0.051453f, 0.048658f, 0.015460f, 0.063516f, 0.007912f, -0.186705f, -0.049312f, 0.064683f, 0.073830f, -0.014583f, -0.074272f, -0.064810f, 0.052442f, 0.106189f, 0.039222f, 0.110741f, 0.050063f, -0.018390f, -0.010582f, 0.019184f, -0.002742f, -0.085177f, 0.085821f, -0.052703f, 0.020949f, 0.112581f, -0.084402f, -0.078325f, -0.019614f, 0.161598f, 0.104128f, 0.039159f, -0.001781f, 0.010830f, 0.032929f, 0.109836f, -0.112387f, -0.059398f, -0.037325f, -0.074492f, 0.015325f, -0.021326f, -0.030327f, 0.034936f, -0.073544f, -0.127935f, 0.078496f, 0.080664f, 0.166433f, -0.034608f, 0.114044f, -0.023599f, 0.182285f, 0.044811f, 0.111567f, -0.105240f, -0.005425f, 0.005729f, 0.114728f, -0.015639f, -0.003923f, -0.110062f, 0.016068f, 0.110101f, -0.118183f, 0.085699f, 0.009101f, 0.022880f, -0.200861f, -0.048755f, -0.074775f, 0.014665f, 0.000492f, 0.002149f, 0.036183f, 0.049134f, 0.024759f, 0.160333f, -0.111173f, 0.014825f, -0.044368f, -0.082533f, -0.123773f, 0.049526f, -0.056646f, -0.066383f, 0.083356f, -0.126932f, 0.081289f, -0.078504f, -0.026623f, 0.077926f, -0.099106f, 0.058378f, 0.069675f, -0.005041f, 0.121052f, -0.122358f, 0.078428f, 0.116621f, -0.040344f, 0.072022f, 0.044022f, 0.013620f, -0.022173f, 0.000143f, -0.052496f, 0.036589f};

/* shape: (10,) */
static const float action_bias[10] = {-0.028766f, 0.020383f, -0.209083f, 0.114571f, -0.193082f, 0.128093f, 0.030536f, 0.034125f, -0.048326f, -0.098712f};

